{"levels":[{"inputs":["0","0","0","0","0"],"outputs":["1","0","0","0","0","0"],"biases":["-0.027949830595637406","0.034832810734523004","0.002319894133968958","0.06483608925065731","0.046938547668324976","0.04437997230961284"],"weights":[["0.02276729673171698","0.06988318046249874","0.05671160038562964","0.09436383128599111","-0.059720897441309845","-0.03745035730328115"],["-0.07958889772615785","-0.014145050992687303","0.003543369128251506","0.03157148768409046","0.05791092804089109","-0.04593902676844391"],["0.07262428470059279","-0.09239806367390505","0.06579547479076382","0.03599407856289771","-0.07728710619510558","-0.027881237703115326"],["0.08653347796227305","-0.01290521790383492","-0.02351878574610247","0.0522651133957881","-0.04734359966425572","-0.049960701594304636"],["-0.005182965045841859","0.0967676369500426","0.06402022701214352","-0.05675766819529491","-0.039190087783827356","0.09501247079003138"]]},{"inputs":["1","0","0","0","0","0"],"outputs":["1","0","0","0"],"biases":["-0.07490116841018868","0.058063169434763154","-0.015602216822389227","0.03328682285397622"],"weights":[["0.005191617143320993","-0.023975077730435147","-0.025605423452754697","-0.024440100745965546"],["-0.040059833630903846","0.008271687510845527","0.006633854025397268","-0.03176810740469598"],["0.06096939780813524","-0.008148480450858253","0.058832497917682414","-0.05298768071439761"],["-0.07233953344990984","0.009985102218147813","-0.027437761218801062","-0.027355871150317703"],["0.07579903162169506","-0.06356282469136974","0.022397299316891717","0.05577889950425146"],["0.09265299862712598","0.0036101810987647868","0.09486162513395209","-0.015627760043912642"]]}]}