{"levels":[{"inputs":["0","1","0","0","0"],"outputs":["1","1","1","0","1","0"],"biases":["-0.025759818772636","-0.3902424429314175","-0.31314617542808043","0.44124804487446934","-0.7584781354258119","0.4356035134830827"],"weights":[["-0.815891531578862","0.12542006978023834","-0.09194522851494136","0.7430210434818805","0.3539809579058055","0.886597461999002"],["0.05585238466792686","-0.26689102566841383","0.4024522043054004","-0.024113501212938315","0.7840418484443117","-0.9858044931461154"],["-0.5782222207344869","-0.1250275739951594","-0.737309432110816","0.6800804997566194","0.32200836605178296","0.8865898297344523"],["-0.4726149986856185","0.1450387899816219","-0.34721872250331254","0.07157998462084225","-0.8563498405751659","0.6333248374244411"],["-0.6171661668408213","0.9326781637857411","-0.4324253688820021","-0.2900000394125817","0.5046515415206978","-0.537874687606299"]]},{"inputs":["1","1","1","0","1","0"],"outputs":["1","0","1","1"],"biases":["0.6719201686105913","-0.11517450689908859","-0.9337806065835246","-0.02927756400041881"],"weights":[["-0.06835706574940992","-0.8864192309662222","-0.453124055382655","0.9705476386135063"],["0.4896693584097862","-0.17059555465572274","0.05249564196348877","-0.023593521210010904"],["-0.46909348959970365","0.24516763483141246","0.6098494353829309","-0.8096659666929034"],["-0.03596923622172965","-0.7023449370174706","0.7529042029978215","0.34584684160122814"],["0.8239923687565465","-0.8555209492839191","0.3681028217799356","0.5887063423368992"],["0.9695960340152561","0.7422644278837887","-0.2513440985259008","0.1864784390690386"]]}]}