{"levels":[{"inputs":["0","0","0","0","1"],"outputs":["1","1","0","0","1","1"],"biases":["-0.07985809586839526","0.034969896927560695","0.05246777692462939","0.0618390263230969","-0.07597216640829295","-0.09013527396271657"],"weights":[["0.01123155641706939","0.08509446039304952","0.09690383109576708","0.08466527473867146","-0.05751825619209386","-0.04068670333773468"],["0.06621327005847837","0.03870034879208104","-0.0684290763160108","-0.04858778218082758","0.0170064955294291","-0.09461046728703125"],["-0.03551523017106067","0.049167489746695936","-0.07395116283503636","-0.0252342860389964","0.014180552165167337","-0.08162042278011122"],["0.09834732517235256","0.010981450735441302","0.028319391228665072","0.026376334905941157","0.07395535505668471","0.0634853460714068"],["-0.01518857318360749","0.07667044190582138","-0.02194713255857346","-0.06487486786992405","0.01602526180369579","-0.05505081942946526"]]},{"inputs":["1","1","0","0","1","1"],"outputs":["1","0","1","0"],"biases":["0.08201889603853914","0.0060072531085962","0.04116432913707244","0.040876026494098695"],"weights":[["-0.013663437635487719","-0.018009603294397405","0.08191052610098098","-0.09786800130872393"],["0.022361034049380748","-0.07616328092245457","-0.04802965673495625","0.033719552228966145"],["0.09361117773239092","0.0688067697595252","0.05457397970612443","0.06776159621981111"],["-0.0030849801474417404","-0.005281899317078409","0.009389675852044733","-0.09440678709933702"],["0.09219133665655298","0.07119004140255862","0.012856760251651878","0.09116841495472033"],["0.05613318361483828","-0.043765597667869055","0.06522693510842177","-0.057639088870765944"]]}]}